tree
version=v2
num_class=1
num_tree_per_iteration=1
label_index=0
max_feature_idx=10
objective=regression
feature_names=DF_wm3 RF_wm6 LST_wm6 Age_<_7 Age_7_-_9 Age_10_-_14 Age_15_-_24 Age_25_-_34 Age_35_-_44 Age_45_-_60 Age_>_60
feature_infos=[0:14.66454845] [0:623.89999999999998] [18.07:38.79357143] [61:3786] [21:1934] [35:3354] [86:7153] [100:6058] [163:5753] [200:8958] [197:6584]
tree_sizes=2398 2495 2445 2459 2448 2462 2454 2455 2457 2457 2475

Tree=0
num_leaves=31
num_cat=0
split_feature=0 0 0 0 9 10 9 10 0 2 7 3 2 2 0 7 9 3 9 5 10 2 9 7 5 2 2 2 6 5
split_gain=723.204 199.532 196.492 102.41 73.7872 50.2436 44.0087 38.465 25.9295 22.5729 20.063 17.159 22.9229 26.9634 16.9745 14.6968 20.8565 21.3106 12.5198 12.1313 17.6977 12.5876 10.435 10.9586 9.12813 9.1135 9.75119 8.38152 13.5413 7.09235
threshold=2.0175532220000005 0.56803462750000011 8.1202165210000015 3.6261852985000003 1657.0000000000002 1133.5000000000002 1657.0000000000002 1179.5000000000002 2.4433451670000004 31.214375000000004 907.50000000000011 451.50000000000006 27.411428575000006 30.176160715000005 5.8708178820000008 952.50000000000011 1179.0000000000002 248.00000000000003 949.50000000000011 440.00000000000006 1228.5000000000002 29.452321430000001 949.50000000000011 1158.0000000000002 102.50000000000001 30.691517855000004 30.154910715000003 28.699107145000003 659.50000000000011 495.50000000000006
decision_type=2 2 2 2 2 2 2 2 2 2 2 2 2 2 2 2 2 2 2 2 2 2 2 2 2 2 2 2 2 2
left_child=1 9 3 6 14 -6 18 8 -8 22 11 -3 -13 -14 15 16 17 -5 -2 20 21 27 24 -24 25 26 -1 28 -20 -7
right_child=2 10 -4 4 5 29 7 -9 -10 -11 -12 12 13 -15 -16 -17 -18 -19 19 -21 -22 -23 23 -25 -26 -27 -28 -29 -30 -31
leaf_value=0.33202445583394541 0.33588170639183668 0.34422186387078502 0.51950391823078479 0.41078630454193926 0.50090514636885497 0.43145834470717409 0.3813102858525575 0.36710707752897576 0.45338115733714279 0.32300702486338939 0.33859931369126722 0.41127550966393328 0.33123749975765315 0.3902027929013111 0.34990699365918548 0.3530850289733064 0.43189832327743777 0.34181657446702268 0.38309276244890073 0.33667050254197295 0.40360499135073613 0.33880104265462735 0.32986831348371165 0.32625805619079518 0.3220504423187035 0.31350933553627508 0.36108775049718644 0.39299668528488652 0.33667829656272685 0.39415966488770027
leaf_count=120 116 248 23 24 24 26 26 210 24 5231 2433 24 47 33 36 21 31 21 30 60 23 60 3550 5153 1472 45 38 25 33 25
internal_value=0 -0.0424983 0.907412 0.826066 1.43162 2.22477 0.61856 0.929627 1.71789 -0.0864923 0.204074 0.427218 0.768162 0.511017 0.984361 1.202 1.40661 0.971812 0.385485 0.520088 0.655834 0.529012 -0.0594937 -0.0455825 -0.131773 0.0670142 0.180091 0.769823 0.575412 1.6633
internal_count=19232 18394 838 815 208 75 607 260 50 15609 2785 352 104 80 133 97 76 45 347 231 171 148 10378 8703 1675 203 158 88 63 51
shrinkage=1


Tree=1
num_leaves=31
num_cat=0
split_feature=1 9 6 10 1 2 2 10 2 1 6 6 2 6 9 10 2 2 2 2 10 2 2 4 7 9 6 9 10 7
split_gain=128.703 54.4327 52.1859 39.5656 28.0782 26.1216 57.6298 59.243 26.4616 20.2624 18.6444 86.2692 62.158 83.5949 27.6061 41.4398 66.7112 20.1297 14.434 12.7942 11.7366 10.4128 12.8821 9.90874 18.389 13.3874 8.71492 11.6141 8.61927 8.15005
threshold=7.2750000000000012 1069.5000000000002 789.50000000000011 845.50000000000011 50.385000000000012 30.176160715000005 31.156160715000002 961.50000000000011 30.908125000000002 39.32500000000001 1232.5000000000002 1197.0000000000002 28.699107145000003 1203.0000000000002 1657.0000000000002 1073.0000000000002 28.775803570000004 29.678035715000004 31.033214285000003 28.047142855000004 892.50000000000011 31.935089285000004 32.571875000000006 426.50000000000006 1754.5000000000002 2189.0000000000005 561.00000000000011 820.00000000000011 1219.0000000000002 964.50000000000011
decision_type=2 2 2 2 2 2 2 2 2 2 2 2 2 2 2 2 2 2 2 2 2 2 2 2 2 2 2 2 2 2
left_child=18 26 3 21 10 20 7 8 9 -7 11 14 -13 -14 28 16 -16 -15 -1 -17 -5 -3 -23 -12 25 -25 27 -2 -4 -30
right_child=1 2 4 5 -6 6 -8 -9 -10 -11 23 12 13 17 15 19 -18 -19 -20 -21 -22 22 -24 24 -26 -27 -28 -29 29 -31
leaf_value=-0.0043388177136747547 -0.0048224720491938733 -0.0054574136651868114 -0.00086527878911178886 -0.0042437006320272174 -0.00055156885965434294 0.086793101679634402 0.011684977366829552 -0.0039663423384938929 0.12712524099783465 0.028523729562759399 -0.00095101823270042185 0.010482467005127356 0.14342925782714572 0.06552679032087326 5.6791497815039861e-05 -0.0008700362381038316 0.10378655695146131 0.0054183079073062308 -0.010538859271728401 0.013143881269215797 0.015753587736137983 0.043118979312755448 0.00010689493952965249 0.0044014921468315702 0.0024414072177232505 0.02603690733130162 -0.0096545327748727358 0.0026773670187782385 0.013050428105156815 0.0015204551832635976
leaf_count=1543 1811 283 1123 84 4638 37 151 28 22 25 1497 76 28 30 31 218 31 26 2397 644 580 27 49 132 1672 156 545 722 268 358
internal_value=0 0.0404716 0.0704221 0.260967 0.0479988 0.370122 0.636849 1.18038 1.60028 1.26595 0.0915254 0.151667 0.864921 1.45779 0.108973 0.248791 1.03843 0.752386 -0.162215 0.191995 0.264476 -0.0208912 0.30775 0.0422396 0.0890284 0.322414 -0.0783766 -0.0536947 0.0351073 0.129132
internal_count=19232 15292 12214 1286 10928 927 263 112 84 62 6290 2833 160 84 2673 924 62 56 3940 862 664 359 76 3457 1960 288 3078 2533 1749 626
shrinkage=0.05


Tree=2
num_leaves=31
num_cat=0
split_feature=0 0 0 0 9 8 4 1 1 1 1 7 1 3 9 0 1 3 0 7 9 3 4 5 1 1 0 9 9 4
split_gain=640.688 176.573 172.072 90.2277 64.9906 42.176 39.643 37.6975 30.3953 42.0452 24.6102 19.0116 20.0787 18.3914 16.2501 15.1363 14.7712 25.5531 16.0333 12.9918 18.2204 19.7797 11.9199 13.6742 9.99436 9.63462 12.7155 12.6316 14.8443 9.19086
threshold=2.0175532220000005 0.56803462750000011 8.1202165210000015 3.6261852985000003 1657.0000000000002 1308.0000000000002 175.50000000000003 8.0000000000000018 25.645000000000003 8.6550000000000029 3.1850000000000005 907.50000000000011 15.015000000000002 655.00000000000011 2111.5000000000005 5.8708178820000008 74.120000000000019 395.00000000000006 1.7762034735000001 952.50000000000011 1179.0000000000002 248.00000000000003 142.50000000000003 512.00000000000011 70.020000000000024 8.2850000000000019 1.0685019780000002 1571.0000000000002 1832.5000000000002 311.50000000000006
decision_type=2 2 2 2 2 2 2 2 2 2 2 2 2 2 2 2 2 2 2 2 2 2 2 2 2 2 2 2 2 2
left_child=1 7 3 6 15 -6 -2 -1 9 -8 -3 16 25 -11 -15 19 17 -12 -19 20 21 -5 -9 -24 29 -13 -27 -28 -29 -10
right_child=2 10 -4 4 5 -7 8 22 24 13 11 12 -14 14 -16 -17 -18 18 -20 -21 -22 -23 23 -25 -26 26 27 28 -30 -31
leaf_value=-0.0085188799004219922 0.0096350300770539511 -0.0053018109192923893 0.17757685456586922 0.076915271828571954 0.14683830047195609 0.071302673788297743 0.0066078239473803292 -0.0060665954695176463 0.045702241404542647 0.043054792387732146 0.0077835948629812763 0.010207125641006445 0.0076204501333941499 0.12238822919130327 0.069914540917509135 0.018644186399049228 0.0038588439042751606 0.030915694355964665 0.067134649374268274 0.021796938847927824 0.095722969357044468 0.010469019625868117 -3.2070769830963871e-05 -0.0037704801993040833 0.014613997322671555 0.016789794026170764 0.010188339295841399 0.085704079518715545 0.034938594005588033 0.02526207204466149
leaf_count=3645 182 252 23 24 33 42 29 2167 103 29 88 112 1932 25 36 36 78 100 44 21 31 21 4722 5075 85 98 21 24 36 118
internal_value=0 -0.0399575 0.854121 0.777997 1.3464 2.09077 0.583225 -0.0813431 0.750461 1.1793 0.191995 0.221645 0.189293 1.51672 1.8284 0.92664 0.453641 0.580211 0.839652 1.13216 1.32453 0.91814 -0.0542175 -0.0393725 0.583689 0.434175 0.578105 0.87127 1.1049 0.69577
internal_count=19232 18394 838 815 208 75 607 15609 425 119 2785 2533 2223 90 61 133 310 232 144 97 76 45 11964 9797 306 291 179 81 60 221
shrinkage=0.05


Tree=3
num_leaves=31
num_cat=0
split_feature=0 0 0 9 9 9 1 1 9 9 0 10 9 0 1 0 1 1 9 4 10 1 2 1 10 4 5 2 6 1
split_gain=578.696 181 125.533 122.059 144.872 42.9617 34.022 31.2396 29.3693 64.1675 28.6742 27.2413 33.8151 24.3921 22.2911 19.3586 22.5625 16.0639 12.3944 11.7092 11.3734 15.853 11.8687 11.7062 11.1049 10.7577 12.341 7.91856 7.69312 7.28581
threshold=1.7762034735000001 3.6261852985000003 0.56803462750000011 1706.0000000000002 1832.5000000000002 1179.0000000000002 8.0000000000000018 57.095000000000006 1179.0000000000002 1237.5000000000002 4.5219012145000006 1008.5000000000001 1706.0000000000002 3.2786099320000002 3.1850000000000005 2.4477321440000002 22.430000000000003 50.385000000000012 1423.5000000000002 186.00000000000003 1410.5000000000002 47.100000000000009 28.699107145000003 11.605000000000002 1277.5000000000002 142.50000000000003 512.00000000000011 31.033214285000003 1206.0000000000002 15.015000000000002
decision_type=2 2 2 2 2 2 2 2 2 2 2 2 2 2 2 2 2 2 2 2 2 2 2 2 2 2 2 2 2 2
left_child=2 5 6 8 -5 -2 27 11 10 -10 -3 12 15 20 -4 16 -7 19 -11 -16 21 22 -13 -22 -24 -8 28 -1 -27 -21
right_child=1 3 14 4 -6 7 25 -9 9 18 -12 13 -14 -15 17 -17 -18 -19 -20 29 23 -23 24 -25 -26 26 -28 -29 -30 -31
leaf_value=-0.0051280679711443108 0.0088529062982661503 0.061767007363960152 -0.0066590412592758309 0.20779136521741748 0.064247830670613501 0.028055116161704065 -0.0057632658201693995 0.015360253984863695 0.1373261457681656 0.014381736206511656 -0.0017335148528218271 0.0089137807805487451 0.11055263998331849 0.083392280407927261 0.047833071214457352 0.015061963421683158 0.10066894772260085 0.0047217593989110473 0.060050007433463372 0.01959397339626219 0.051751793846488009 0.066047206923768337 0.02455590289572011 0.0097767241603257705 0.062239674960865701 -0.0002413486833364135 -0.003581956311624516 -0.0099247588292606121 0.019283795707366047 0.010596546812778648
leaf_count=1392 289 32 230 32 39 20 2167 185 25 24 40 47 27 22 24 31 23 954 39 289 20 37 46 98 34 4671 5075 2253 51 1016
internal_value=0 0.699948 -0.0438807 1.48766 2.57887 0.492939 -0.077276 0.647667 1.00343 1.39097 0.529779 0.803187 1.25313 0.653697 0.163547 0.903624 1.3379 0.193441 0.853051 0.264511 0.574579 0.744929 0.577113 0.337823 0.81143 -0.0515067 -0.0374039 -0.161859 -0.000609344 0.251782
internal_count=19232 1110 18122 231 71 879 15609 590 160 88 72 405 101 304 2513 74 43 2283 63 1329 282 164 127 118 80 11964 9797 3645 4722 1305
shrinkage=0.05


Tree=4
num_leaves=31
num_cat=0
split_feature=0 0 0 0 9 10 9 1 10 1 1 8 9 1 1 10 2 8 0 2 9 1 4 10 0 3 2 1 1 1
split_gain=523.814 146.342 143.31 71.7837 52.5996 36.9393 32.7901 30.7048 29.168 25.3801 20.0628 16.9051 17.0552 36.4713 14.7144 16.7591 14.691 12.4842 12.4269 12.3547 22.502 11.2408 13.4121 11.0876 10.9632 11.1905 13.1184 10.7479 18.3313 10.4978
threshold=2.0175532220000005 8.1202165210000015 0.56803462750000011 3.6261852985000003 1657.0000000000002 1133.5000000000002 1657.0000000000002 8.0000000000000018 1179.5000000000002 34.415000000000006 3.1850000000000005 1236.5000000000002 1657.0000000000002 26.550000000000001 19.005000000000006 1073.0000000000002 26.306250000000002 1070.5000000000002 5.8708178820000008 29.748660715000003 1369.0000000000002 25.645000000000003 303.00000000000006 1179.5000000000002 5.210542288500001 267.50000000000006 28.960982145000006 28.395000000000003 36.975000000000001 7.2750000000000012
decision_type=2 2 2 2 2 2 2 2 2 2 2 2 2 2 2 2 2 2 2 2 2 2 2 2 2 2 2 2 2 2
left_child=2 3 7 6 18 -6 29 -1 9 -8 -4 12 16 -14 15 -13 -12 19 24 20 -18 -10 -23 -16 25 -5 -27 -21 -29 -2
right_child=1 -3 10 4 5 -7 8 -9 21 -11 11 14 13 -15 23 -17 17 -19 -20 27 -22 22 -24 -25 -26 26 -28 28 -30 -31
leaf_value=-0.0076882891877572248 -0.010027715256985497 0.16299394485743152 -0.0048126944385114175 0.070642622932791707 0.14508930879334611 0.069865648148983134 0.11276152088590291 -0.0024465669498805968 0.049342482584336454 0.041286273466216196 0.043330747783184055 0.060382202054773064 0.091815871194652898 0.015240332546333472 -0.006360033428531954 0.014222410836024962 -0.00083758486434817316 0.0016021767258644105 0.016485136126478516 0.010317697144787887 0.03966888914505641 0.050139922064703871 0.015339818888089874 0.0070358468902562647 0.083866182863712321 -3.8563189181414515e-05 0.050445813325143633 0.06941320093408708 0.023613298563538374 0.019225400781479128
leaf_count=3645 34 23 252 24 24 51 23 11964 63 27 40 21 23 48 174 309 144 190 36 58 45 37 110 1376 20 22 31 31 74 313
internal_value=0 0.772299 -0.0361279 0.702097 1.20908 1.87874 0.528369 -0.0734122 0.796875 1.4833 0.172838 0.199609 0.338225 0.80093 0.151462 0.343197 0.281778 0.238617 0.831456 0.35012 0.176136 0.633441 0.481981 0.110641 1.01767 0.846336 0.589801 0.551855 0.742703 0.327182
internal_count=19232 838 18394 815 208 75 607 15609 260 50 2785 2533 653 71 1880 330 582 542 133 352 189 210 147 1550 97 77 53 163 105 347
shrinkage=0.05


Tree=5
num_leaves=31
num_cat=0
split_feature=0 9 1 0 0 7 5 1 1 1 8 5 2 9 4 1 2 7 1 1 1 2 9 8 9 1 5 8 2 5
split_gain=466.205 94.7742 115.367 133.138 92.0408 55.4101 88.8387 33.1682 32.1502 30.1266 26.3891 21.4458 34.9007 21.8776 19.8434 18.3921 18.0877 15.292 11.2721 10.7435 10.1694 13.7686 9.53322 12.9317 8.67405 7.66932 8.33692 7.38595 7.06393 10.7948
threshold=1.7721079260000001 1179.0000000000002 52.235000000000007 3.4565222725000004 0.56803462750000011 1147.5000000000002 562.50000000000011 8.2850000000000019 12.335000000000003 4.285000000000001 923.00000000000011 477.50000000000006 30.176160715000005 1624.5000000000002 416.50000000000006 3.1850000000000005 29.078839285000004 836.00000000000011 34.415000000000006 50.650000000000006 65.405000000000015 30.385089285000003 1069.5000000000002 1110.0000000000002 1400.0000000000002 6.7350000000000003 122.50000000000001 1474.5000000000002 29.830267855000002 117.00000000000001
decision_type=2 2 2 2 2 2 2 2 2 2 2 2 2 2 2 2 2 2 2 2 2 2 2 2 2 2 2 2 2 2
left_child=4 25 3 7 9 10 -7 -3 -9 28 -5 12 13 17 18 -6 -16 -10 27 -17 21 -4 -11 24 -24 -2 -27 -13 29 -1
right_child=1 2 20 5 15 6 -8 8 11 22 -12 14 -14 -15 16 19 -18 -19 -20 -21 -22 -23 23 -25 -26 26 -28 -29 -30 -31
leaf_value=0.030864249440756716 -0.0077249488614975137 0.0037103944549373557 0.042361165814358615 0.10210484393216945 -0.0064156402418969055 0.18404418219988411 0.06599906930433852 0.1004705282358023 0.044105156433993375 -0.0048481384235158865 0.034491299381179195 0.05299854800105095 0.099789442701472178 0.081906127007234666 0.074547980745372028 0.01107878374264357 0.022114527019961128 -0.01272601753473282 -0.0011087660776807908 0.0041363050839351738 0.0075560862277017308 -0.0020273013710975646 -0.00017900204672008789 -0.0026728143270420574 0.0067795242965221414 0.044351843709037421 0.011781511751354718 0.014533533270542437 -0.0093188207895051715 -0.0047144736824300364
leaf_count=22 47 51 58 27 238 37 28 26 29 3010 31 24 36 21 38 1338 29 20 47 955 166 25 1766 7232 600 21 305 26 2290 689
internal_value=0 0.632165 0.844355 1.13591 -0.0406106 2.02986 2.66388 0.819038 0.94737 -0.0692939 1.31933 0.8451 1.19566 0.784159 0.618521 0.136283 1.03706 0.418175 0.329428 0.163747 0.294022 0.579823 -0.0478602 -0.0324613 0.0317126 0.223146 0.277592 0.659935 -0.159343 -0.0722717
internal_count=19232 1092 719 470 18140 123 65 347 296 15609 58 270 106 70 164 2531 67 49 97 2293 249 83 12608 9598 2366 373 326 50 3001 711
shrinkage=0.05


Tree=6
num_leaves=31
num_cat=0
split_feature=0 0 9 8 0 9 1 1 1 10 1 2 10 10 3 10 8 3 1 1 8 5 9 2 4 8 10 9 8 1
split_gain=421.533 86.5854 103.449 94.1123 74.7082 33.695 46.5317 34.7905 34.174 29.0197 27.1892 19.7987 26.2592 21.0091 18.1398 29.1033 18.6238 17.3365 15.4211 14.7624 11.6976 10.7402 8.94238 10.9749 11.2122 9.93558 9.163 8.60373 11.6708 8.17565
threshold=1.6970740285000001 3.6261852985000003 1657.0000000000002 1236.5000000000002 0.56803462750000011 1166.5000000000002 62.035000000000004 8.2850000000000019 12.335000000000003 1474.5000000000002 4.285000000000001 26.306250000000002 909.50000000000011 1003.5000000000001 158.50000000000003 950.50000000000011 847.00000000000011 267.50000000000006 40.590000000000011 3.1850000000000005 1094.5000000000002 541.50000000000011 2119.0000000000005 30.777857140000005 259.50000000000006 1308.0000000000002 1167.0000000000002 1069.5000000000002 1110.0000000000002 53.085000000000008
decision_type=2 2 2 2 2 2 2 2 2 2 2 2 2 2 2 2 2 2 2 2 2 2 2 2 2 2 2 2 2 2
left_child=4 5 14 -4 10 -2 7 -7 -9 11 -1 -10 -13 18 -3 16 17 -16 -14 -6 -17 -5 23 25 -25 26 -15 -12 -29 -21
right_child=1 2 3 21 19 6 -8 8 9 -11 27 12 13 22 15 20 -18 -19 -20 29 -22 -23 -24 24 -26 -27 -28 28 -30 -31
leaf_value=-0.0075687739237232437 0.0073084921620108871 -0.006684376700566365 0.18481149238844713 0.085965202236548077 -0.0058504856617093599 0.0013142539188265802 0.0066998405772771569 0.086750659618426026 0.0933566727489233 0.016490717411041259 -0.0046057309775514241 0.0049767162741684336 0.096161842346191406 0.028186714731984669 0.071961782517887304 -0.020034921311196829 0.089633567734011294 0.010337836265563966 0.040830609127879142 0.009882880987019612 0.032136399027976124 0.042226159349083907 0.061611232060838399 0.080853081742922467 0.02854335680603981 0.046732056001201276 -0.011698106055458388 0.001506347129230064 -0.0025391735492708923 0.0036378587872185233
leaf_count=3001 275 26 24 32 232 64 188 37 20 125 3010 41 34 36 21 21 29 25 20 1325 22 25 37 21 20 32 24 2366 7232 867
internal_value=0 0.571864 1.13098 2.03507 -0.0404646 0.442705 0.559367 0.715863 0.814595 0.731533 -0.0658292 0.907725 0.835317 0.969992 0.622429 0.789031 1.16507 0.76941 1.51338 0.122867 0.133148 1.33563 0.797387 0.676417 1.10672 0.484651 0.244656 -0.0454672 -0.0308383 0.148256
internal_count=19232 1199 225 81 18033 974 699 511 447 410 15609 285 265 224 144 118 75 46 54 2424 43 57 170 133 41 92 60 12608 9598 2192
shrinkage=0.05


Tree=7
num_leaves=31
num_cat=0
split_feature=0 0 9 9 0 7 1 1 2 1 1 1 1 0 7 7 1 0 9 5 1 4 0 1 1 3 9 6 0 1
split_gain=382.213 101.045 98.1221 91.8149 77.9928 63.8789 25.7606 18.2057 25.7484 15.0965 14.8722 14.6906 13.1389 13.2079 14.7139 19.2944 17.0834 12.8183 13.8864 20.2643 50.6029 11.4116 10.8674 9.29351 9.24699 8.93539 8.49446 11.6958 7.82704 7.00753
threshold=2.1159728640000002 0.67935351950000011 1657.0000000000002 1832.5000000000002 2.5737001525000003 1277.0000000000002 3.8750000000000004 6.7350000000000003 32.753214285000006 3.1850000000000005 53.085000000000008 54.945000000000007 74.77500000000002 2.8362760980000004 717.00000000000011 827.00000000000011 50.650000000000006 1.6970740285000001 1166.5000000000002 362.50000000000006 22.430000000000003 89.500000000000014 3.0240459280000009 25.945000000000004 30.410000000000004 383.50000000000006 1069.5000000000002 933.50000000000011 2.1848017450000006 35.115000000000009
decision_type=2 2 2 2 2 2 2 2 2 2 2 2 2 2 2 2 2 2 2 2 2 2 2 2 2 2 2 2 2 2
left_child=1 6 7 4 -4 -6 -1 -2 12 -3 17 22 13 -9 16 -16 21 -11 25 20 -20 -15 28 -21 -17 -19 -8 -28 -5 -22
right_child=2 9 3 11 5 -7 26 8 -10 10 -12 -13 -14 14 15 24 -18 18 19 23 29 -23 -24 -25 -26 -27 27 -29 -30 -31
leaf_value=-0.0072405242219464906 -0.011523595310392834 -0.0043667964785355905 0.027741071383158369 0.063683117851614957 0.075796194055250718 0.17065825927485195 -0.0043998014653859 0.012134958276974745 0.073289713387688013 0.0098760200098842836 0.0038807629965305194 0.016309058951834838 0.0045815142613012819 -0.026055182257424231 0.075294783751706826 0.057651765942573555 0.046610218193382028 -0.011952107660472394 -0.0071383525495943819 0.034743298581904836 0.065348801584470845 0.021872053543726604 0.064599048726260669 0.0055366620421409612 0.016344512608789264 0.026153028905391697 0.0016398834509984727 -0.0023527863616005927 0.02852848380755045 0.10670301564037801
leaf_count=2974 42 239 30 20 35 36 3018 116 24 1184 924 60 103 23 37 20 32 40 23 45 21 27 50 69 42 25 2434 7443 76 20
internal_value=0 -0.0310238 0.686723 1.12568 1.90669 2.47791 -0.060914 0.397542 0.459751 0.152114 0.176456 0.74275 0.399388 0.506119 0.674941 0.934427 0.361659 0.240457 0.449664 0.594121 1.04444 -0.0034895 0.913942 0.341312 0.593389 0.0540743 -0.0415648 -0.0273774 0.717047 1.71043
internal_count=19232 18459 773 307 101 71 15869 466 424 2590 2351 206 400 297 181 99 82 1427 243 178 64 50 146 114 62 65 12895 9877 96 41
shrinkage=0.05


Tree=8
num_leaves=31
num_cat=0
split_feature=0 0 9 10 1 1 2 0 1 2 1 1 1 0 9 10 0 1 1 4 0 9 5 1 0 4 2 3 3 9
split_gain=344.948 91.1933 88.5552 152.499 46.6975 23.249 19.9371 23.3487 16.4307 23.3132 13.6246 13.4222 12.0399 12.8834 14.4959 21.8766 12.0545 11.9276 11.7807 13.3281 11.5685 12.5325 18.2885 45.6692 11.0537 9.69321 10.5896 8.6025 8.06419 7.66625
threshold=2.1159728640000002 0.67935351950000011 1657.0000000000002 1073.0000000000002 37.625000000000007 3.8750000000000004 27.487678570000003 3.5584023055000009 6.7350000000000003 32.788839285000009 3.1850000000000005 53.085000000000008 74.77500000000002 2.8362760980000004 1179.0000000000002 1008.5000000000001 3.1368456310000004 40.590000000000011 50.650000000000006 89.500000000000014 1.6970740285000001 1166.5000000000002 362.50000000000006 22.430000000000003 2.1848017450000006 292.50000000000006 28.640089285000006 976.50000000000011 383.50000000000006 1069.5000000000002
decision_type=2 2 2 2 2 2 2 2 2 2 2 2 2 2 2 2 2 2 2 2 2 2 2 2 2 2 2 2 2 2
left_child=1 5 8 4 -4 -1 -5 24 -2 12 -3 20 13 -10 18 -16 -17 -9 19 -15 -12 28 23 -23 -8 -26 -27 -24 -22 -7
right_child=2 10 3 6 -6 29 7 17 9 -11 11 -13 -14 14 15 16 -18 -19 -20 -21 21 22 27 -25 25 26 -28 -29 -30 -31
leaf_value=-0.0068784975510409385 -0.010947415906758537 -0.0041484570465826097 0.16896591263357552 0.0025044133141636851 0.07157278447411955 -0.0041798111866382581 0.064613884299993526 0.091261691594263547 0.011229399814564958 0.071955694461410688 0.0093822188557021804 0.0036867247194402502 0.004352438507728206 -0.02475242323201636 0.073086323943876083 0.051383555206385524 0.0015238536728752984 0.042766425758600235 0.042234882441433995 0.024244679553168162 -0.011354502327740193 -0.0067814351423926972 0.0072581649571657183 0.081245510970673909 0.052300569640867635 0.049215816484334381 0.012648165015032492 0.037280912171391879 0.024845377981662753 -0.0013004248171214607
leaf_count=2974 42 239 32 35 20 3018 25 32 117 22 1184 924 103 23 42 22 27 21 33 35 40 23 80 41 33 26 83 34 25 9877
internal_value=0 -0.0294726 0.652387 1.06939 2.63014 -0.0578683 0.751121 0.862649 0.377665 0.436763 0.144509 0.167634 0.381908 0.483482 0.649914 0.932134 0.478197 1.44093 0.367694 0.0962959 0.228434 0.427181 0.564415 0.992217 0.679123 0.571173 0.427414 0.324246 0.0513706 -0.0394866
internal_count=19232 18459 773 307 52 15869 255 220 466 424 2590 2351 402 299 182 91 49 53 91 58 1427 243 178 64 167 142 109 114 65 12895
shrinkage=0.05


Tree=9
num_leaves=31
num_cat=0
split_feature=0 0 9 10 1 1 2 0 1 2 1 1 0 9 10 1 0 1 7 9 1 10 3 0 1 3 2 3 3 9
split_gain=311.315 82.5836 79.9211 137.63 42.5205 20.6965 17.9933 21.135 14.8287 21.1173 13.5802 12.7974 11.3264 11.3106 14.3936 33.2008 23.842 10.6872 10.7134 29.3093 17.8909 10.8572 10.2305 9.73258 11.5971 8.87112 8.11337 7.83936 7.27793 7.06166
threshold=2.1159728640000002 0.56803462750000011 1657.0000000000002 1073.0000000000002 26.235000000000003 11.605000000000002 27.487678570000003 3.5676943835000006 6.7350000000000003 32.753214285000006 3.1850000000000005 53.085000000000008 1.6970740285000001 1166.5000000000002 1518.0000000000002 36.355000000000011 1.8859109925000002 74.77500000000002 874.00000000000011 1179.0000000000002 62.515000000000008 961.50000000000011 64.500000000000014 2.1848017450000006 20.325000000000003 782.00000000000011 29.777321430000004 689.00000000000011 383.50000000000006 1069.5000000000002
decision_type=2 2 2 2 2 2 2 2 2 2 2 2 2 2 2 2 2 2 2 2 2 2 2 2 2 2 2 2 2 2
left_child=1 5 8 4 -4 22 -5 23 -2 17 -3 12 -12 28 15 16 -15 18 19 20 -10 -21 -1 -8 -25 -9 -24 -20 -14 -7
right_child=2 10 3 6 -6 29 7 25 9 -11 11 -13 13 14 -16 -17 -18 -19 27 21 -22 -23 26 24 -26 -27 -28 -29 -30 -31
leaf_value=0.02279632394352267 -0.01040004449231284 -0.0043083948861068113 0.17986532760163149 0.0023791930824518205 0.087718541520617671 -0.0039673937710581666 0.06138319024443626 0.087473630391318224 0.010714212416306787 0.066300689304868377 0.0085481261022670087 0.0031621045060685189 -0.01078677710145712 0.0077921279634420694 0.0082879763661008899 0.087234882781138792 0.069072886095160532 0.0041348165244732091 -0.0036537412140104503 0.078841524643282743 0.060251862591221221 0.036279358432210723 -0.0022722264874311449 0.051331580503794709 0.019176841116397184 0.044802358667255342 -0.0073217055457001981 0.03069059979170561 0.023603109061717989 -0.0010313296123587849
leaf_count=31 42 267 21 35 31 2677 25 29 138 24 1325 1015 40 65 66 26 21 103 54 31 21 29 1068 38 107 21 3118 24 25 8715
internal_value=0 -0.027999 0.619768 1.01592 2.49863 -0.05658 0.713565 0.819517 0.358782 0.414925 0.128535 0.150728 0.20736 0.405822 0.536195 0.754487 0.455121 0.36026 0.456519 0.569867 0.345138 1.1654 -0.116429 0.651424 0.552072 1.39103 -0.120668 0.138275 0.048802 -0.0344255
internal_count=19232 18459 773 307 52 15609 255 220 466 424 2850 2583 1568 243 178 112 86 400 297 219 159 60 4217 170 145 50 4186 78 65 11392
shrinkage=0.05


Tree=10
num_leaves=31
num_cat=0
split_feature=0 0 0 9 10 2 0 1 2 1 1 1 1 4 3 7 9 0 2 0 10 2 3 1 3 8 3 10 9 1
split_gain=284.429 174.523 42.5437 47.608 63.6319 67.7083 23.9686 29.5249 23.4224 21.7713 14.7187 25.1047 16.2782 13.7285 12.7106 11.3366 14.2667 11.4691 9.79968 9.47202 8.33639 8.00574 7.71169 11.8763 11.6616 8.68635 9.40895 7.62231 8.98617 8.31442
threshold=1.0344611950000002 8.1202165210000015 2.2431655905000008 1657.0000000000002 1073.0000000000002 28.640089285000006 3.4003495740000003 49.985000000000007 32.753214285000006 4.6350000000000007 7.2750000000000012 37.625000000000007 8.6550000000000029 139.00000000000003 153.50000000000003 836.00000000000011 1069.5000000000002 0.35265994100000003 27.233482145000004 3.9318547225000002 1383.5000000000002 32.33598214500001 582.00000000000011 57.960000000000008 689.00000000000011 940.00000000000011 487.50000000000006 1769.0000000000002 2173.0000000000005 30.725000000000005
decision_type=2 2 2 2 2 2 2 2 2 2 2 2 2 2 2 2 2 2 2 2 2 2 2 2 2 2 2 2 2 2
left_child=9 2 10 8 5 -5 20 19 14 -1 -2 12 -12 -11 -4 16 18 21 -15 -8 -6 -17 23 25 -24 -13 -27 28 -14 -30
right_child=1 -3 3 4 6 -7 7 -9 -10 13 11 22 27 15 -16 17 -18 -19 -20 -21 -22 -23 24 -25 -26 26 -28 -29 29 -31
leaf_value=-0.0059562585537467324 -0.0013282375591518606 0.15937734970024653 -0.027362800687551498 0.036121654189524371 0.033204202524696788 0.16466750943101943 0.10257999233269532 0.0085256570383258484 0.062360196933150293 -0.0050036452314568616 0.058604105934500696 0.0082757234573364261 0.017687220499707074 0.025282431300729515 0.013577641325665045 -0.0013372165553926065 0.0076219062114288028 0.0033837041937854252 -0.002992739327468318 0.058157729246054918 0.010321325005105374 -0.0058773320229440068 -0.0071569627088107421 0.0054486878216266632 0.0082212835874297015 0.062370522388003093 0.024389352472055526 0.003273987383426478 0.026373715724861413 0.063843300715088855
leaf_count=3163 226 21 20 21 72 20 21 23 24 2161 26 52 473 32 364 7517 861 1154 723 28 89 1115 178 210 401 22 63 75 57 20
internal_value=0 0.316838 0.292578 0.505324 0.827729 1.97654 0.625578 1.10519 0.288806 -0.044416 0.212106 0.24631 0.396789 -0.0269932 0.228907 -0.0131425 0.0644523 -0.025956 -0.0358864 1.54392 0.411093 -0.0384733 0.140519 0.2584 0.069872 0.487448 0.684395 0.364537 0.405317 0.722122
internal_count=19232 2506 2485 682 274 41 233 72 408 16726 1803 1577 651 13563 384 11402 1616 9786 755 49 161 8632 926 347 579 137 85 625 550 77
shrinkage=0.05


end of trees

feature importances:
RF_wm6=80
DF_wm3=57
Age_45_-_60=48
LST_wm6=39
Age_>_60=28
Age_<_7=19
Age_25_-_34=14
Age_7_-_9=13
Age_10_-_14=12
Age_35_-_44=12
Age_15_-_24=8

parameters:
[boosting: gbdt]
[objective: regression]
[metric: l2,l1]
[tree_learner: serial]
[device_type: cpu]
[data: ]
[valid: ]
[num_iterations: 100]
[learning_rate: 0.05]
[num_leaves: 31]
[num_threads: 0]
[max_depth: -1]
[min_data_in_leaf: 20]
[min_sum_hessian_in_leaf: 0.001]
[bagging_fraction: 0.8]
[bagging_freq: 5]
[bagging_seed: 3]
[feature_fraction: 0.9]
[feature_fraction_seed: 2]
[early_stopping_round: 0]
[max_delta_step: 0]
[lambda_l1: 0]
[lambda_l2: 0]
[min_gain_to_split: 0]
[drop_rate: 0.1]
[max_drop: 50]
[skip_drop: 0.5]
[xgboost_dart_mode: 0]
[uniform_drop: 0]
[drop_seed: 4]
[top_rate: 0.2]
[other_rate: 0.1]
[min_data_per_group: 100]
[max_cat_threshold: 32]
[cat_l2: 10]
[cat_smooth: 10]
[max_cat_to_onehot: 4]
[top_k: 20]
[monotone_constraints: ]
[feature_contri: ]
[forcedsplits_filename: ]
[refit_decay_rate: 0.9]
[verbosity: 0]
[max_bin: 255]
[min_data_in_bin: 3]
[bin_construct_sample_cnt: 200000]
[histogram_pool_size: -1]
[data_random_seed: 1]
[output_model: LightGBM_model.txt]
[snapshot_freq: -1]
[input_model: ]
[output_result: LightGBM_predict_result.txt]
[initscore_filename: ]
[valid_data_initscores: ]
[pre_partition: 0]
[enable_bundle: 1]
[max_conflict_rate: 0]
[is_enable_sparse: 1]
[sparse_threshold: 0.8]
[use_missing: 1]
[zero_as_missing: 0]
[two_round: 0]
[save_binary: 0]
[enable_load_from_binary_file: 1]
[header: 0]
[label_column: ]
[weight_column: ]
[group_column: ]
[ignore_column: ]
[categorical_feature: ]
[predict_raw_score: 0]
[predict_leaf_index: 0]
[predict_contrib: 0]
[num_iteration_predict: -1]
[pred_early_stop: 0]
[pred_early_stop_freq: 10]
[pred_early_stop_margin: 10]
[convert_model_language: ]
[convert_model: gbdt_prediction.cpp]
[num_class: 1]
[is_unbalance: 0]
[scale_pos_weight: 1]
[sigmoid: 1]
[boost_from_average: 1]
[reg_sqrt: 0]
[alpha: 0.9]
[fair_c: 1]
[poisson_max_delta_step: 0.7]
[tweedie_variance_power: 1.5]
[max_position: 20]
[label_gain: ]
[metric_freq: 1]
[is_provide_training_metric: 0]
[eval_at: ]
[num_machines: 1]
[local_listen_port: 12400]
[time_out: 120]
[machine_list_filename: ]
[machines: ]
[gpu_platform_id: -1]
[gpu_device_id: -1]
[gpu_use_dp: 0]

end of parameters

pandas_categorical:[]
